digraph Tree {
node [shape=box, style="filled, rounded", color="black", fontname=helvetica] ;
edge [fontname=helvetica] ;
0 [label="20 <= 105.5\ngini = 0.5\nsamples = 3847\nvalue = [3128, 2965]\nclass = e", fillcolor="#fef8f5"] ;
1 [label="21 <= 107.0\ngini = 0.107\nsamples = 775\nvalue = [71, 1181]\nclass = p", fillcolor="#45a3e7"] ;
0 -> 1 [labeldistance=2.5, labelangle=45, headlabel="True"] ;
2 [label="gini = 0.0\nsamples = 8\nvalue = [10, 0]\nclass = e", fillcolor="#e58139"] ;
1 -> 2 ;
3 [label="17 <= 115.0\ngini = 0.093\nsamples = 767\nvalue = [61, 1181]\nclass = p", fillcolor="#43a2e6"] ;
1 -> 3 ;
4 [label="gini = 0.0\nsamples = 14\nvalue = [29, 0]\nclass = e", fillcolor="#e58139"] ;
3 -> 4 ;
5 [label="5 <= 106.0\ngini = 0.051\nsamples = 753\nvalue = [32, 1181]\nclass = p", fillcolor="#3ea0e6"] ;
3 -> 5 ;
6 [label="(...)", fillcolor="#C0C0C0"] ;
5 -> 6 ;
7 [label="(...)", fillcolor="#C0C0C0"] ;
5 -> 7 ;
8 [label="22 <= 105.5\ngini = 0.465\nsamples = 3072\nvalue = [3057, 1784]\nclass = e", fillcolor="#f4cbad"] ;
0 -> 8 [labeldistance=2.5, labelangle=-45, headlabel="False"] ;
9 [label="8 <= 104.0\ngini = 0.362\nsamples = 2031\nvalue = [2456, 766]\nclass = e", fillcolor="#eda877"] ;
8 -> 9 ;
10 [label="3 <= 100.0\ngini = 0.048\nsamples = 1541\nvalue = [2378, 60]\nclass = e", fillcolor="#e6843e"] ;
9 -> 10 ;
11 [label="(...)", fillcolor="#C0C0C0"] ;
10 -> 11 ;
12 [label="(...)", fillcolor="#C0C0C0"] ;
10 -> 12 ;
29 [label="7 <= 109.0\ngini = 0.179\nsamples = 490\nvalue = [78, 706]\nclass = p", fillcolor="#4fa8e8"] ;
9 -> 29 ;
30 [label="(...)", fillcolor="#C0C0C0"] ;
29 -> 30 ;
31 [label="(...)", fillcolor="#C0C0C0"] ;
29 -> 31 ;
40 [label="21 <= 116.5\ngini = 0.467\nsamples = 1041\nvalue = [601, 1018]\nclass = p", fillcolor="#aed7f4"] ;
8 -> 40 ;
41 [label="8 <= 104.0\ngini = 0.202\nsamples = 292\nvalue = [404, 52]\nclass = e", fillcolor="#e89152"] ;
40 -> 41 ;
42 [label="(...)", fillcolor="#C0C0C0"] ;
41 -> 42 ;
43 [label="(...)", fillcolor="#C0C0C0"] ;
41 -> 43 ;
44 [label="14 <= 111.5\ngini = 0.281\nsamples = 749\nvalue = [197, 966]\nclass = p", fillcolor="#61b1ea"] ;
40 -> 44 ;
45 [label="(...)", fillcolor="#C0C0C0"] ;
44 -> 45 ;
46 [label="(...)", fillcolor="#C0C0C0"] ;
44 -> 46 ;
}